digraph Tree {
node [shape=box, fontname="helvetica"] ;
edge [fontname="helvetica"] ;
0 [label="X[3] <= 4.15\ngini = 0.612\nsamples = 70\nvalue = [2, 14, 38, 16]"] ;
1 [label="X[3] <= 3.35\ngini = 0.48\nsamples = 46\nvalue = [2, 14, 30, 0]"] ;
0 -> 1 [labeldistance=2.5, labelangle=45, headlabel="True"] ;
2 [label="X[4] <= 2011.0\ngini = 0.56\nsamples = 10\nvalue = [2, 6, 2, 0]"] ;
1 -> 2 ;
3 [label="X[1] <= 59.5\ngini = 0.667\nsamples = 6\nvalue = [2, 2, 2, 0]"] ;
2 -> 3 ;
4 [label="X[4] <= 1978.5\ngini = 0.5\nsamples = 4\nvalue = [2, 2, 0, 0]"] ;
3 -> 4 ;
5 [label="gini = 0.0\nsamples = 1\nvalue = [0, 1, 0, 0]"] ;
4 -> 5 ;
6 [label="X[3] <= 3.25\ngini = 0.444\nsamples = 3\nvalue = [2, 1, 0, 0]"] ;
4 -> 6 ;
7 [label="gini = 0.0\nsamples = 2\nvalue = [2, 0, 0, 0]"] ;
6 -> 7 ;
8 [label="gini = 0.0\nsamples = 1\nvalue = [0, 1, 0, 0]"] ;
6 -> 8 ;
9 [label="gini = 0.0\nsamples = 2\nvalue = [0, 0, 2, 0]"] ;
3 -> 9 ;
10 [label="gini = 0.0\nsamples = 4\nvalue = [0, 4, 0, 0]"] ;
2 -> 10 ;
11 [label="X[4] <= 2014.5\ngini = 0.346\nsamples = 36\nvalue = [0, 8, 28, 0]"] ;
1 -> 11 ;
12 [label="X[1] <= 38.5\ngini = 0.271\nsamples = 31\nvalue = [0, 5, 26, 0]"] ;
11 -> 12 ;
13 [label="X[2] <= 9.0\ngini = 0.5\nsamples = 4\nvalue = [0, 2, 2, 0]"] ;
12 -> 13 ;
14 [label="gini = 0.0\nsamples = 2\nvalue = [0, 0, 2, 0]"] ;
13 -> 14 ;
15 [label="gini = 0.0\nsamples = 2\nvalue = [0, 2, 0, 0]"] ;
13 -> 15 ;
16 [label="X[4] <= 2003.5\ngini = 0.198\nsamples = 27\nvalue = [0, 3, 24, 0]"] ;
12 -> 16 ;
17 [label="gini = 0.0\nsamples = 17\nvalue = [0, 0, 17, 0]"] ;
16 -> 17 ;
18 [label="X[3] <= 3.7\ngini = 0.42\nsamples = 10\nvalue = [0, 3, 7, 0]"] ;
16 -> 18 ;
19 [label="X[2] <= 11.0\ngini = 0.48\nsamples = 5\nvalue = [0, 3, 2, 0]"] ;
18 -> 19 ;
20 [label="gini = 0.0\nsamples = 2\nvalue = [0, 0, 2, 0]"] ;
19 -> 20 ;
21 [label="gini = 0.0\nsamples = 3\nvalue = [0, 3, 0, 0]"] ;
19 -> 21 ;
22 [label="gini = 0.0\nsamples = 5\nvalue = [0, 0, 5, 0]"] ;
18 -> 22 ;
23 [label="X[2] <= 11.5\ngini = 0.48\nsamples = 5\nvalue = [0, 3, 2, 0]"] ;
11 -> 23 ;
24 [label="gini = 0.0\nsamples = 3\nvalue = [0, 3, 0, 0]"] ;
23 -> 24 ;
25 [label="gini = 0.0\nsamples = 2\nvalue = [0, 0, 2, 0]"] ;
23 -> 25 ;
26 [label="X[0] <= 19.5\ngini = 0.444\nsamples = 24\nvalue = [0, 0, 8, 16]"] ;
0 -> 26 [labeldistance=2.5, labelangle=-45, headlabel="False"] ;
27 [label="gini = 0.0\nsamples = 8\nvalue = [0, 0, 0, 8]"] ;
26 -> 27 ;
28 [label="X[4] <= 1976.5\ngini = 0.5\nsamples = 16\nvalue = [0, 0, 8, 8]"] ;
26 -> 28 ;
29 [label="gini = 0.0\nsamples = 5\nvalue = [0, 0, 0, 5]"] ;
28 -> 29 ;
30 [label="X[3] <= 4.35\ngini = 0.397\nsamples = 11\nvalue = [0, 0, 8, 3]"] ;
28 -> 30 ;
31 [label="gini = 0.0\nsamples = 5\nvalue = [0, 0, 5, 0]"] ;
30 -> 31 ;
32 [label="X[0] <= 60.0\ngini = 0.5\nsamples = 6\nvalue = [0, 0, 3, 3]"] ;
30 -> 32 ;
33 [label="X[1] <= 53.5\ngini = 0.375\nsamples = 4\nvalue = [0, 0, 3, 1]"] ;
32 -> 33 ;
34 [label="gini = 0.0\nsamples = 3\nvalue = [0, 0, 3, 0]"] ;
33 -> 34 ;
35 [label="gini = 0.0\nsamples = 1\nvalue = [0, 0, 0, 1]"] ;
33 -> 35 ;
36 [label="gini = 0.0\nsamples = 2\nvalue = [0, 0, 0, 2]"] ;
32 -> 36 ;
}